"V1"
-4.52
2.017
0.229
1.187
-0.443
-0.881
0.509
-1.372
-0.36
0.523
1.285
0.002
0.287
-0.492
-1.004
-0.042
-0.631
0.605
-0.1
0.465
0.098
-0.859
0.926
-0.12
-0.046
0.476
0.813
-0.197
-0.323
-0.223
0.384
-0.312
0.119
0.085
0.059
1.199
0.405
0.292
0.001
-0.65
-0.544
-0.767
-0.206
0.051
0.151
0.087
-0.269
0.268
-0.249
-0.724
-0.57
0.055
-0.473
0.056
-0.113
0.507
0.651
-0.343
0.435
-0.143
0.054
0.246
-0.136
0.134
0.19
0.086
-0.127
0.084
0.105
-0.417
-0.427
-0.249
0.275
0.061
0.251
0.685
0.135
0.483
0.14
0.261
0.229
0.13
-0.035
-0.113
0.079
-0.185
0.057
0.14
0.127
-0.067
-0.166
-0.206
0.222
0.065
0.053
0.02
0.017
0.341
0.465
0.142
0.246
-0.05
-0.215
-0.147
0.139
-0.004
0.26
-0.164
-0.268
0.027
0.135
-0.19
0.088
-0.123
0.17
-0.109
-0.098
-0.087
0.256
-0.283
-0.256
0.02
0.118
0.13
0.071
0.02
-0.187
-0.011
0.184
0.039
-0.252
-0.167
0.027
0.25
0.012
0.154
0.104
-0.128
0.028
-0.005
0.034
-0.04
-0.114
-0.068
0.141
0.296
0.047
-0.056
-0.262
-0.029
-0.071
0.009
0.05
-0.257
0.089
-0.041
-0.096
0.079
-0.001
-0.113
-0.046
0.167
0.169
-0.168
-0.166
0.111
-0.057
0.077
-0.274
-0.078
0.237
0.027
-0.045
-0.041
-0.014
-0.078
-0.037
0.134
0.083
-0.075
0.131
-0.152
0.025
0.063
0.002
-0.031
0.129
-0.17
0.032
0.004
0.017
0.113
0.039
0.077
0.077
-0.131
0.067
0.081
-0.178
-0.17
0.124
-0.012
0.354
0.024
-0.087
0.007
-0.071
-0.005
0.064
0.029
0.038
0.128
-0.019
-0.107
0.183
0.032
-0.133
0.032
-0.189
0.07
0.007
0.007
-0.054
-0.039
-0.005
0.01
-0.11
0.098
0.101
-0.148
-0.061
0.183
0.014
-0.044
-0.014
-0.188
0.029
0.017
-0.059
0.171
0.196
0.217
-0.061
0.082
0.057
0.033
-0.081
-0.007
-0.04
-0.139
0.189
-0.061
0.033
0.128
-0.036
0.042
0.033
-0.163
0.009
0.011
-0.002
-0.064
0.18
0.075
0.009
-0.01
-0.048
0.045
0.064
